digraph Tree {
node [shape=box] ;
0 [label="turbine_flow <= 360.83\nmse = 0.426\nsamples = 6818\nvalue = 1.499"] ;
1 [label="turbine_flow <= 236.945\nmse = 0.11\nsamples = 4224\nvalue = 1.084"] ;
0 -> 1 [labeldistance=2.5, labelangle=45, headlabel="True"] ;
2 [label="mse = 0.049\nsamples = 1730\nvalue = 0.776"] ;
1 -> 2 ;
3 [label="mse = 0.04\nsamples = 2494\nvalue = 1.298"] ;
1 -> 3 ;
4 [label="turbine_flow <= 513.945\nmse = 0.206\nsamples = 2594\nvalue = 2.174"] ;
0 -> 4 [labeldistance=2.5, labelangle=-45, headlabel="False"] ;
5 [label="mse = 0.054\nsamples = 1620\nvalue = 1.884"] ;
4 -> 5 ;
6 [label="mse = 0.084\nsamples = 974\nvalue = 2.657"] ;
4 -> 6 ;
}