digraph Tree {
node [shape=box] ;
0 [label="effluent_flow_7 <= 327.275\ngini = 0.495\nsamples = 3889\nvalue = [2134, 1755]"] ;
1 [label="influent_flow <= 309.47\ngini = 0.301\nsamples = 1982\nvalue = [1616, 366]"] ;
0 -> 1 [labeldistance=2.5, labelangle=45, headlabel="True"] ;
2 [label="effluent_flow_7 <= 285.735\ngini = 0.214\nsamples = 1520\nvalue = [1335, 185]"] ;
1 -> 2 ;
3 [label="energy_stored_14 <= 79281.531\ngini = 0.159\nsamples = 1215\nvalue = [1109, 106]"] ;
2 -> 3 ;
4 [label="maximum_demand_30 <= 32310.931\ngini = 0.09\nsamples = 723\nvalue = [689, 34]"] ;
3 -> 4 ;
5 [label="influent_flow_7 <= 129.805\ngini = 0.237\nsamples = 138\nvalue = [119, 19]"] ;
4 -> 5 ;
6 [label="gini = 0.469\nsamples = 24\nvalue = [15, 9]"] ;
5 -> 6 ;
7 [label="gini = 0.16\nsamples = 114\nvalue = [104, 10]"] ;
5 -> 7 ;
8 [label="effluent_flow_14 <= 264.5\ngini = 0.05\nsamples = 585\nvalue = [570, 15]"] ;
4 -> 8 ;
9 [label="gini = 0.005\nsamples = 410\nvalue = [409, 1]"] ;
8 -> 9 ;
10 [label="gini = 0.147\nsamples = 175\nvalue = [161, 14]"] ;
8 -> 10 ;
11 [label="water_level_7 <= 447.02\ngini = 0.25\nsamples = 492\nvalue = [420, 72]"] ;
3 -> 11 ;
12 [label="gini = 0.0\nsamples = 6\nvalue = [0, 6]"] ;
11 -> 12 ;
13 [label="energy_charge_7 <= 813.541\ngini = 0.235\nsamples = 486\nvalue = [420, 66]"] ;
11 -> 13 ;
14 [label="gini = 0.19\nsamples = 433\nvalue = [387, 46]"] ;
13 -> 14 ;
15 [label="gini = 0.47\nsamples = 53\nvalue = [33, 20]"] ;
13 -> 15 ;
16 [label="volume_used <= 87.175\ngini = 0.384\nsamples = 305\nvalue = [226, 79]"] ;
2 -> 16 ;
17 [label="volume_used <= 69.03\ngini = 0.283\nsamples = 211\nvalue = [175, 36]"] ;
16 -> 17 ;
18 [label="volume_used_30 <= 84.99\ngini = 0.174\nsamples = 104\nvalue = [94, 10]"] ;
17 -> 18 ;
19 [label="gini = 0.159\nsamples = 103\nvalue = [94, 9]"] ;
18 -> 19 ;
20 [label="gini = 0.0\nsamples = 1\nvalue = [0, 1]"] ;
18 -> 20 ;
21 [label="effluent_flow_90 <= 711.5\ngini = 0.368\nsamples = 107\nvalue = [81, 26]"] ;
17 -> 21 ;
22 [label="gini = 0.336\nsamples = 103\nvalue = [81, 22]"] ;
21 -> 22 ;
23 [label="gini = 0.0\nsamples = 4\nvalue = [0, 4]"] ;
21 -> 23 ;
24 [label="volume_used_90 <= 66.54\ngini = 0.496\nsamples = 94\nvalue = [51, 43]"] ;
16 -> 24 ;
25 [label="effluent_flow_30 <= 390.5\ngini = 0.227\nsamples = 23\nvalue = [3, 20]"] ;
24 -> 25 ;
26 [label="gini = 0.0\nsamples = 19\nvalue = [0, 19]"] ;
25 -> 26 ;
27 [label="gini = 0.375\nsamples = 4\nvalue = [3, 1]"] ;
25 -> 27 ;
28 [label="influent_flow_30 <= 251.795\ngini = 0.438\nsamples = 71\nvalue = [48, 23]"] ;
24 -> 28 ;
29 [label="gini = 0.269\nsamples = 50\nvalue = [42, 8]"] ;
28 -> 29 ;
30 [label="gini = 0.408\nsamples = 21\nvalue = [6, 15]"] ;
28 -> 30 ;
31 [label="volume_used <= 80.35\ngini = 0.477\nsamples = 462\nvalue = [281, 181]"] ;
1 -> 31 ;
32 [label="energy_stored_7 <= 86500.699\ngini = 0.34\nsamples = 226\nvalue = [177, 49]"] ;
31 -> 32 ;
33 [label="poured_flow <= 66.0\ngini = 0.296\nsamples = 205\nvalue = [168, 37]"] ;
32 -> 33 ;
34 [label="energy_stored_14 <= 50135.311\ngini = 0.266\nsamples = 196\nvalue = [165, 31]"] ;
33 -> 34 ;
35 [label="gini = 0.12\nsamples = 94\nvalue = [88, 6]"] ;
34 -> 35 ;
36 [label="gini = 0.37\nsamples = 102\nvalue = [77, 25]"] ;
34 -> 36 ;
37 [label="influent_flow_30 <= 355.22\ngini = 0.444\nsamples = 9\nvalue = [3, 6]"] ;
33 -> 37 ;
38 [label="gini = 0.0\nsamples = 3\nvalue = [3, 0]"] ;
37 -> 38 ;
39 [label="gini = 0.0\nsamples = 6\nvalue = [0, 6]"] ;
37 -> 39 ;
40 [label="effluent_flow_90 <= 409.0\ngini = 0.49\nsamples = 21\nvalue = [9, 12]"] ;
32 -> 40 ;
41 [label="effluent_flow_90 <= 231.5\ngini = 0.375\nsamples = 12\nvalue = [9, 3]"] ;
40 -> 41 ;
42 [label="gini = 0.0\nsamples = 2\nvalue = [0, 2]"] ;
41 -> 42 ;
43 [label="gini = 0.18\nsamples = 10\nvalue = [9, 1]"] ;
41 -> 43 ;
44 [label="gini = 0.0\nsamples = 9\nvalue = [0, 9]"] ;
40 -> 44 ;
45 [label="effluent_flow_14 <= 318.5\ngini = 0.493\nsamples = 236\nvalue = [104, 132]"] ;
31 -> 45 ;
46 [label="effluent_flow_7 <= 239.0\ngini = 0.494\nsamples = 159\nvalue = [88, 71]"] ;
45 -> 46 ;
47 [label="energy_stored_7 <= 43976.1\ngini = 0.387\nsamples = 61\nvalue = [45, 16]"] ;
46 -> 47 ;
48 [label="gini = 0.0\nsamples = 3\nvalue = [0, 3]"] ;
47 -> 48 ;
49 [label="gini = 0.348\nsamples = 58\nvalue = [45, 13]"] ;
47 -> 49 ;
50 [label="energy_stored_90 <= 114631.152\ngini = 0.493\nsamples = 98\nvalue = [43, 55]"] ;
46 -> 50 ;
51 [label="gini = 0.5\nsamples = 88\nvalue = [43, 45]"] ;
50 -> 51 ;
52 [label="gini = 0.0\nsamples = 10\nvalue = [0, 10]"] ;
50 -> 52 ;
53 [label="energy_stored <= 112476.18\ngini = 0.329\nsamples = 77\nvalue = [16, 61]"] ;
45 -> 53 ;
54 [label="effluent_flow_90 <= 396.5\ngini = 0.21\nsamples = 67\nvalue = [8, 59]"] ;
53 -> 54 ;
55 [label="gini = 0.073\nsamples = 53\nvalue = [2, 51]"] ;
54 -> 55 ;
56 [label="gini = 0.49\nsamples = 14\nvalue = [6, 8]"] ;
54 -> 56 ;
57 [label="effluent_flow_30 <= 378.5\ngini = 0.32\nsamples = 10\nvalue = [8, 2]"] ;
53 -> 57 ;
58 [label="gini = 0.0\nsamples = 8\nvalue = [8, 0]"] ;
57 -> 58 ;
59 [label="gini = 0.0\nsamples = 2\nvalue = [0, 2]"] ;
57 -> 59 ;
60 [label="water_level <= 448.575\ngini = 0.396\nsamples = 1907\nvalue = [518, 1389]"] ;
0 -> 60 [labeldistance=2.5, labelangle=-45, headlabel="False"] ;
61 [label="effluent_flow_7 <= 402.5\ngini = 0.499\nsamples = 522\nvalue = [250, 272]"] ;
60 -> 61 ;
62 [label="energy_charge <= 640.563\ngini = 0.448\nsamples = 218\nvalue = [144, 74]"] ;
61 -> 62 ;
63 [label="maximum_demand_7 <= 25515.3\ngini = 0.227\nsamples = 46\nvalue = [40, 6]"] ;
62 -> 63 ;
64 [label="energy_charge <= 449.313\ngini = 0.375\nsamples = 4\nvalue = [1, 3]"] ;
63 -> 64 ;
65 [label="gini = 0.0\nsamples = 1\nvalue = [1, 0]"] ;
64 -> 65 ;
66 [label="gini = 0.0\nsamples = 3\nvalue = [0, 3]"] ;
64 -> 66 ;
67 [label="water_level_30 <= 450.08\ngini = 0.133\nsamples = 42\nvalue = [39, 3]"] ;
63 -> 67 ;
68 [label="gini = 0.093\nsamples = 41\nvalue = [39, 2]"] ;
67 -> 68 ;
69 [label="gini = 0.0\nsamples = 1\nvalue = [0, 1]"] ;
67 -> 69 ;
70 [label="influent_flow_14 <= 394.94\ngini = 0.478\nsamples = 172\nvalue = [104, 68]"] ;
62 -> 70 ;
71 [label="water_level_30 <= 446.765\ngini = 0.418\nsamples = 104\nvalue = [73, 31]"] ;
70 -> 71 ;
72 [label="gini = 0.0\nsamples = 5\nvalue = [0, 5]"] ;
71 -> 72 ;
73 [label="gini = 0.387\nsamples = 99\nvalue = [73, 26]"] ;
71 -> 73 ;
74 [label="influent_flow_14 <= 722.065\ngini = 0.496\nsamples = 68\nvalue = [31, 37]"] ;
70 -> 74 ;
75 [label="gini = 0.395\nsamples = 48\nvalue = [13, 35]"] ;
74 -> 75 ;
76 [label="gini = 0.18\nsamples = 20\nvalue = [18, 2]"] ;
74 -> 76 ;
77 [label="water_level <= 447.17\ngini = 0.454\nsamples = 304\nvalue = [106, 198]"] ;
61 -> 77 ;
78 [label="influent_flow_14 <= 357.59\ngini = 0.339\nsamples = 37\nvalue = [29, 8]"] ;
77 -> 78 ;
79 [label="influent_flow <= 274.69\ngini = 0.444\nsamples = 9\nvalue = [3, 6]"] ;
78 -> 79 ;
80 [label="gini = 0.0\nsamples = 3\nvalue = [3, 0]"] ;
79 -> 80 ;
81 [label="gini = 0.0\nsamples = 6\nvalue = [0, 6]"] ;
79 -> 81 ;
82 [label="water_level <= 446.98\ngini = 0.133\nsamples = 28\nvalue = [26, 2]"] ;
78 -> 82 ;
83 [label="gini = 0.0\nsamples = 18\nvalue = [18, 0]"] ;
82 -> 83 ;
84 [label="gini = 0.32\nsamples = 10\nvalue = [8, 2]"] ;
82 -> 84 ;
85 [label="energy_stored_7 <= 98299.73\ngini = 0.41\nsamples = 267\nvalue = [77, 190]"] ;
77 -> 85 ;
86 [label="water_level_14 <= 448.525\ngini = 0.45\nsamples = 225\nvalue = [77, 148]"] ;
85 -> 86 ;
87 [label="gini = 0.393\nsamples = 171\nvalue = [46, 125]"] ;
86 -> 87 ;
88 [label="gini = 0.489\nsamples = 54\nvalue = [31, 23]"] ;
86 -> 88 ;
89 [label="gini = 0.0\nsamples = 42\nvalue = [0, 42]"] ;
85 -> 89 ;
90 [label="influent_flow <= 493.485\ngini = 0.312\nsamples = 1385\nvalue = [268, 1117]"] ;
60 -> 90 ;
91 [label="volume_used_7 <= 98.61\ngini = 0.412\nsamples = 785\nvalue = [228, 557]"] ;
90 -> 91 ;
92 [label="influent_flow_30 <= 172.775\ngini = 0.395\nsamples = 754\nvalue = [204, 550]"] ;
91 -> 92 ;
93 [label="effluent_flow_7 <= 335.5\ngini = 0.5\nsamples = 124\nvalue = [61, 63]"] ;
92 -> 93 ;
94 [label="gini = 0.153\nsamples = 12\nvalue = [11, 1]"] ;
93 -> 94 ;
95 [label="gini = 0.494\nsamples = 112\nvalue = [50, 62]"] ;
93 -> 95 ;
96 [label="effluent_flow_14 <= 319.275\ngini = 0.351\nsamples = 630\nvalue = [143, 487]"] ;
92 -> 96 ;
97 [label="gini = 0.467\nsamples = 143\nvalue = [53, 90]"] ;
96 -> 97 ;
98 [label="gini = 0.301\nsamples = 487\nvalue = [90, 397]"] ;
96 -> 98 ;
99 [label="energy_charge_14 <= 834.442\ngini = 0.35\nsamples = 31\nvalue = [24, 7]"] ;
91 -> 99 ;
100 [label="influent_flow <= 446.38\ngini = 0.147\nsamples = 25\nvalue = [23, 2]"] ;
99 -> 100 ;
101 [label="gini = 0.08\nsamples = 24\nvalue = [23, 1]"] ;
100 -> 101 ;
102 [label="gini = 0.0\nsamples = 1\nvalue = [0, 1]"] ;
100 -> 102 ;
103 [label="influent_flow_90 <= 220.65\ngini = 0.278\nsamples = 6\nvalue = [1, 5]"] ;
99 -> 103 ;
104 [label="gini = 0.0\nsamples = 5\nvalue = [0, 5]"] ;
103 -> 104 ;
105 [label="gini = 0.0\nsamples = 1\nvalue = [1, 0]"] ;
103 -> 105 ;
106 [label="volume_used <= 74.495\ngini = 0.124\nsamples = 600\nvalue = [40, 560]"] ;
90 -> 106 ;
107 [label="water_level_7 <= 449.4\ngini = 0.353\nsamples = 83\nvalue = [19, 64]"] ;
106 -> 107 ;
108 [label="influent_flow_7 <= 216.16\ngini = 0.231\nsamples = 60\nvalue = [8, 52]"] ;
107 -> 108 ;
109 [label="gini = 0.0\nsamples = 2\nvalue = [2, 0]"] ;
108 -> 109 ;
110 [label="gini = 0.185\nsamples = 58\nvalue = [6, 52]"] ;
108 -> 110 ;
111 [label="poured_flow_14 <= 352.0\ngini = 0.499\nsamples = 23\nvalue = [11, 12]"] ;
107 -> 111 ;
112 [label="gini = 0.457\nsamples = 17\nvalue = [11, 6]"] ;
111 -> 112 ;
113 [label="gini = 0.0\nsamples = 6\nvalue = [0, 6]"] ;
111 -> 113 ;
114 [label="water_level_90 <= 449.35\ngini = 0.078\nsamples = 517\nvalue = [21, 496]"] ;
106 -> 114 ;
115 [label="maximum_demand_30 <= 44228.254\ngini = 0.278\nsamples = 54\nvalue = [9, 45]"] ;
114 -> 115 ;
116 [label="gini = 0.233\nsamples = 52\nvalue = [7, 45]"] ;
115 -> 116 ;
117 [label="gini = 0.0\nsamples = 2\nvalue = [2, 0]"] ;
115 -> 117 ;
118 [label="energy_stored_7 <= 35878.508\ngini = 0.05\nsamples = 463\nvalue = [12, 451]"] ;
114 -> 118 ;
119 [label="gini = 0.48\nsamples = 5\nvalue = [2, 3]"] ;
118 -> 119 ;
120 [label="gini = 0.043\nsamples = 458\nvalue = [10, 448]"] ;
118 -> 120 ;
}